<NeuralNetwork>
   <Inputs>
      <InputsNumber>4</InputsNumber>
      <Item Index="1">
         <Name>BallPositionX</Name>
         <Units></Units>
         <Description></Description>
      </Item>
      <Item Index="2">
         <Name>BallPositionY</Name>
         <Units></Units>
         <Description></Description>
      </Item>
      <Item Index="3">
         <Name>BallMoveX</Name>
         <Units></Units>
         <Description></Description>
      </Item>
      <Item Index="4">
         <Name>BallMoveY</Name>
         <Units></Units>
         <Description></Description>
      </Item>
   </Inputs>
   <MultilayerPerceptron>
      <Architecture>4 20 1</Architecture>
      <LayersActivationFunction>SoftSign Linear</LayersActivationFunction>
      <Parameters>-22.2728 -27.3797 -0.516201 0.418307 -56.8746 18.3975 -15.894 75.4299 -0.00360566 4.14813e-05 0.249039 0.300147 16.9665 4.26925 -0.427001 -1.65426 -0.00390985 -0.00809656 -0.612976 -0.00159101 -0.0152199 -0.00766097 -0.826111 -0.966421 -14.204 -44.4645 -1.01171 4.47141 0.0425636 0.0131993 2.55101 -4.11449 1.62968 -22.7238 -11.441 -104.674 7.0964 3.55597 0.953641 0.86989 -8.44682 -9.23772 -1.74633 -1.44377 114.563 59.8496 -2.45511 1.12471 8.12717 8.23713 -3.66736 2.14895 0.0143199 -0.00849189 1.63159 -0.0758843 -0.00637003 -0.000433219 0.301229 -0.514323 6.94334 11.2828 -1.37825 1.35722 -7.30821 -10.7364 -89.9326 -55.1078 -0.0131338 0.00471347 -1.24222 0.123454 12.6238 -67.6248 -0.540375 4.25394 7.461 5.23646 -0.981227 0.541838 -0.666872 -24.31 7.18445 0.166178 -5.04231 15.9066 8.14055 64.1002 -34.5745 0.738717 -1.7948 -1.16685 -2.07809 3.64079 -1.93879 -0.831407 3.88809 -2.05544 5.33908 -0.97137 46.1379 52.6988 289.894 -48.5292 -256.353 248.169 36.9306 221.88 51.3417 -24.3943 21.9409 -40.8457 -52.3127 -289.952 -232.301 -54.919 -64.7224 -436.51 -15.0768 -30.6921 -20.8809</Parameters>
   </MultilayerPerceptron>
   <Outputs>
      <OutputsNumber>1</OutputsNumber>
      <Item Index="1">
         <Name>RealBallPosition</Name>
         <Units></Units>
         <Description></Description>
      </Item>
   </Outputs>
</NeuralNetwork>
