<NeuralNetwork>
    <Inputs>
        <InputsNumber>4</InputsNumber>
        <Item Index="1">
            <Name>BallPositionX</Name>
            <Units></Units>
            <Description></Description>
        </Item>
        <Item Index="2">
            <Name>BallPositionY</Name>
            <Units></Units>
            <Description></Description>
        </Item>
        <Item Index="3">
            <Name>BallMoveX</Name>
            <Units></Units>
            <Description></Description>
        </Item>
        <Item Index="4">
            <Name>BallMoveY</Name>
            <Units></Units>
            <Description></Description>
        </Item>
    </Inputs>
    <MultilayerPerceptron>
        <Architecture>4 20 1</Architecture>
        <LayersActivationFunction>SoftSign Linear</LayersActivationFunction>
        <Parameters>-1.70495 0.0528813 0.966236 -2.50303 -3.22451 -0.629297 0.237082 -1.64826 2.76159 0.914126 -0.582498
            -1.48256 3.55365 0.953637 0.512631 -1.7344 -27.4945 -13.4278 -0.332938 0.302757 -1.81602 3.85381 -6.30194
            7.76944 15.6762 3.21161 0.250123 -0.064238 -1.07978 5.216 -0.777488 9.18862 1.60848 -7.08262 -0.103626
            -0.742253 3.31142 -11.2277 0.706974 0.560109 0.548352 -4.31749 -0.600645 0.421796 -2.67114 -0.902385 0.15767
            0.343424 8.48633 0.798542 -0.130717 -0.207739 22.036 34.5942 0.167701 1.63125 -0.506496 0.415273 -0.222886
            14.0267 -3.09698 -0.970732 -0.424013 0.801906 -18.4246 34.1678 -3.59893 2.35414 1.99668 -4.17339 6.10643
            -7.94553 -3.82762 -1.12815 -1.3323 0.70572 0.0109607 -0.0112034 -0.531193 -0.570227 0.00701507 -0.976545
            0.0226718 -0.00456411 1.45369 1.53359 0.297983 0.651198 -0.71735 0.821633 1.16047 0.223449 0.661225 -2.19948
            0.116269 1.73108 -0.566731 0.935599 -0.82119 0.999392 -29.6948 -33.2026 34.3205 32.6362 42.0194 75.8675
            124.421 0.283181 -0.152258 -0.321719 -12.5167 -31.1949 32.4511 31.9868 -30.7795 -32.2667 0.586228 -59.9242
            -33.7293 -34.1179 32.8254
        </Parameters>
    </MultilayerPerceptron>
    <Outputs>
        <OutputsNumber>1</OutputsNumber>
        <Item Index="1">
            <Name>RealBallPosition</Name>
            <Units></Units>
            <Description></Description>
        </Item>
    </Outputs>
</NeuralNetwork>
