<NeuralNetwork>
   <Inputs>
      <InputsNumber>4</InputsNumber>
      <Item Index="1">
         <Name>BallPositionX</Name>
         <Units></Units>
         <Description></Description>
      </Item>
      <Item Index="2">
         <Name>BallPositionY</Name>
         <Units></Units>
         <Description></Description>
      </Item>
      <Item Index="3">
         <Name>BallMoveX</Name>
         <Units></Units>
         <Description></Description>
      </Item>
      <Item Index="4">
         <Name>BallMoveY</Name>
         <Units></Units>
         <Description></Description>
      </Item>
   </Inputs>
   <MultilayerPerceptron>
      <Architecture>4 20 1</Architecture>
      <LayersActivationFunction>SoftSign Linear</LayersActivationFunction>
      <Parameters>-18.2503 -8.82475 -0.172954 -1.53691 18.7177 -6.14573 -0.520584 -4.46304 16.8831 16.9149 0.176259 0.0586649 -48.2915 -23.3814 0.65962 1.1335 18.1215 2.15313 0.480384 -2.20664 -7.69817 -21.9193 0.147135 1.41212 -67.6031 16.4057 -0.0487353 49.2534 -4.23589 -12.1282 0.143336 1.13733 2.41722 -1.69252 -28.8569 -0.216422 3.96977 6.2841 -0.141141 1.07612 15.6431 7.13513 0.861491 -0.856855 74.7393 243.279 -0.94035 -6.48898 -18.9166 -1.08408 1.53089 1.64048 -11.1041 -3.54243 0.070131 -0.0865667 -5.74716 -7.83293 1.67604 -0.110809 -4.93148 -0.718682 0.248744 -0.212257 56.5451 13.3528 1.16356 2.55653 5.8978 8.20767 1.33813 -0.953052 6.76113 5.03793 0.625027 3.00437 -9.49122 -6.9612 1.07493 -0.854007 0.037901 1.61612 -0.688362 1.4598 -0.5362 0.816171 0.317063 -0.158782 5.5065 0.422011 -1.28412 0.27247 -0.406466 -0.808956 -0.40963 -0.39224 -0.215119 -0.363198 -0.138637 0.312574 -31.4847 10.0688 12.8361 1.01369 31.7669 -25.1178 127.273 -29.9099 65.0465 3.87665 26.8811 -1.62506 -30.0316 -31.3749 -31.4592 1.87404 30.2206 32.4737 32.2225 -11.6131 31.796</Parameters>
   </MultilayerPerceptron>
   <Outputs>
      <OutputsNumber>1</OutputsNumber>
      <Item Index="1">
         <Name>RealBallPosition</Name>
         <Units></Units>
         <Description></Description>
      </Item>
   </Outputs>
</NeuralNetwork>
